Language model created by QuickLM on Sat Feb 17 00:46:29 EST 2018
Copyright (c) 1996-2010 Carnegie Mellon University and Alexander I. Rudnicky

The model is in standard ARPA format, designed by Doug Paul while he was at MITRE.

The code that was used to produce this language model is available in Open Source.
Please visit http://www.speech.cs.cmu.edu/tools/ for more information

The (fixed) discount mass is 0.5. The backoffs are computed using the ratio method.
This model based on a corpus of 16 sentences and 40 words

\data\
ngram 1=40
ngram 2=62
ngram 3=65

\1-grams:
-1.1614 </s> -0.3010
-1.1614 <s> -0.2700
-2.0645 A -0.2954
-2.3655 ALARM -0.2992
-2.3655 AMAZING -0.2700
-2.3655 BE -0.2992
-2.3655 CALENDAR -0.2954
-2.3655 CLOCK -0.2700
-2.3655 COOL -0.2700
-2.3655 DAY -0.2700
-2.3655 DO -0.2954
-2.3655 EVENTS -0.2954
-1.8884 FOR -0.2954
-2.3655 GOING -0.2992
-2.3655 GUEST -0.2700
-2.3655 HEADLINES -0.2700
-2.3655 IMPRESS -0.2973
-2.3655 IS -0.2992
-2.3655 LIKE -0.2700
-1.4624 ME -0.2780
-2.0645 MUSIC -0.2700
-2.0645 MY -0.2973
-2.3655 NEWS -0.2954
-2.3655 OF -0.2877
-2.3655 PICTURE -0.2700
-1.8884 PLAY -0.2877
-1.1614 PLEASE -0.2700
-2.3655 QUOTE -0.2992
-2.3655 RUN -0.2877
-2.3655 SAY -0.2954
-1.8884 SOMETHING -0.2660
-2.3655 TAKE -0.2973
-1.5204 TELL -0.2858
-1.5204 THE -0.2877
-2.3655 TO -0.2992
-1.8884 TODAY -0.2700
-2.3655 UP -0.2700
-2.3655 WAKE -0.2858
-2.0645 WEATHER -0.2680
-2.3655 WHAT -0.2877

\2-grams:
-0.3010 <s> PLEASE 0.0000
-0.6021 A MUSIC 0.0000
-0.6021 A PICTURE 0.0000
-0.3010 ALARM CLOCK 0.0000
-0.3010 AMAZING </s> -0.3010
-0.3010 BE LIKE 0.0000
-0.3010 CALENDAR FOR 0.0000
-0.3010 CLOCK </s> -0.3010
-0.3010 COOL </s> -0.3010
-0.3010 DAY </s> -0.3010
-0.3010 DO SOMETHING -0.2218
-0.3010 EVENTS FOR 0.0000
-0.3010 FOR TODAY 0.0000
-0.3010 GOING TO 0.0000
-0.3010 GUEST </s> -0.3010
-0.3010 HEADLINES </s> -0.3010
-0.3010 IMPRESS MY -0.1761
-0.3010 IS GOING 0.0000
-0.3010 LIKE </s> -0.3010
-1.2041 ME EVENTS 0.0000
-1.2041 ME MY -0.1761
-0.6021 ME THE -0.1091
-1.2041 ME UP 0.0000
-1.2041 ME WHAT 0.0000
-0.3010 MUSIC </s> -0.3010
-0.6021 MY CALENDAR 0.0000
-0.6021 MY GUEST 0.0000
-0.3010 NEWS FOR 0.0000
-0.3010 OF THE -0.2688
-0.3010 PICTURE </s> -0.3010
-0.7782 PLAY A -0.1761
-0.7782 PLAY MUSIC 0.0000
-0.7782 PLAY SOMETHING -0.2218
-1.5051 PLEASE DO 0.0000
-1.5051 PLEASE IMPRESS 0.0000
-1.0280 PLEASE PLAY 0.0000
-1.5051 PLEASE RUN 0.0000
-1.5051 PLEASE SAY 0.0000
-1.5051 PLEASE TAKE 0.0000
-0.6601 PLEASE TELL 0.0000
-1.5051 PLEASE WAKE 0.0000
-0.3010 QUOTE OF 0.0000
-0.3010 RUN THE -0.2688
-0.3010 SAY SOMETHING -0.2218
-0.7782 SOMETHING </s> -0.3010
-0.7782 SOMETHING AMAZING 0.0000
-0.7782 SOMETHING COOL 0.0000
-0.3010 TAKE A -0.1761
-0.3010 TELL ME -0.0512
-1.1461 THE ALARM 0.0000
-1.1461 THE DAY 0.0000
-1.1461 THE HEADLINES 0.0000
-1.1461 THE NEWS 0.0000
-1.1461 THE QUOTE 0.0000
-0.8451 THE WEATHER 0.0000
-0.3010 TO BE 0.0000
-0.3010 TODAY </s> -0.3010
-0.3010 UP </s> -0.3010
-0.3010 WAKE ME -0.2730
-0.6021 WEATHER </s> -0.3010
-0.6021 WEATHER IS 0.0000
-0.3010 WHAT THE -0.2341

\3-grams:
-1.5051 <s> PLEASE DO
-1.5051 <s> PLEASE IMPRESS
-1.0280 <s> PLEASE PLAY
-1.5051 <s> PLEASE RUN
-1.5051 <s> PLEASE SAY
-1.5051 <s> PLEASE TAKE
-0.6601 <s> PLEASE TELL
-1.5051 <s> PLEASE WAKE
-0.3010 A MUSIC </s>
-0.3010 A PICTURE </s>
-0.3010 ALARM CLOCK </s>
-0.3010 BE LIKE </s>
-0.3010 CALENDAR FOR TODAY
-0.3010 DO SOMETHING AMAZING
-0.3010 EVENTS FOR TODAY
-0.3010 FOR TODAY </s>
-0.3010 GOING TO BE
-0.3010 IMPRESS MY GUEST
-0.3010 IS GOING TO
-0.3010 ME EVENTS FOR
-0.3010 ME MY CALENDAR
-0.9031 ME THE HEADLINES
-0.9031 ME THE NEWS
-0.9031 ME THE QUOTE
-0.9031 ME THE WEATHER
-0.3010 ME UP </s>
-0.3010 ME WHAT THE
-0.3010 MY CALENDAR FOR
-0.3010 MY GUEST </s>
-0.3010 NEWS FOR TODAY
-0.3010 OF THE DAY
-0.3010 PLAY A MUSIC
-0.3010 PLAY MUSIC </s>
-0.3010 PLAY SOMETHING COOL
-0.3010 PLEASE DO SOMETHING
-0.3010 PLEASE IMPRESS MY
-0.7782 PLEASE PLAY A
-0.7782 PLEASE PLAY MUSIC
-0.7782 PLEASE PLAY SOMETHING
-0.3010 PLEASE RUN THE
-0.3010 PLEASE SAY SOMETHING
-0.3010 PLEASE TAKE A
-0.3010 PLEASE TELL ME
-0.3010 PLEASE WAKE ME
-0.3010 QUOTE OF THE
-0.3010 RUN THE ALARM
-0.3010 SAY SOMETHING </s>
-0.3010 SOMETHING AMAZING </s>
-0.3010 SOMETHING COOL </s>
-0.3010 TAKE A PICTURE
-1.1461 TELL ME EVENTS
-1.1461 TELL ME MY
-0.5441 TELL ME THE
-1.1461 TELL ME WHAT
-0.3010 THE ALARM CLOCK
-0.3010 THE DAY </s>
-0.3010 THE HEADLINES </s>
-0.3010 THE NEWS FOR
-0.3010 THE QUOTE OF
-0.6021 THE WEATHER </s>
-0.6021 THE WEATHER IS
-0.3010 TO BE LIKE
-0.3010 WAKE ME UP
-0.3010 WEATHER IS GOING
-0.3010 WHAT THE WEATHER

\end\
