Language model created by QuickLM on Mon Feb 12 01:05:25 EST 2018
Copyright (c) 1996-2010 Carnegie Mellon University and Alexander I. Rudnicky

The model is in standard ARPA format, designed by Doug Paul while he was at MITRE.

The code that was used to produce this language model is available in Open Source.
Please visit http://www.speech.cs.cmu.edu/tools/ for more information

The (fixed) discount mass is 0.5. The backoffs are computed using the ratio method.
This model based on a corpus of 9 sentences and 23 words

\data\
ngram 1=23
ngram 2=33
ngram 3=33

\1-grams:
-1.0711 </s> -0.3010
-1.0711 <s> -0.2625
-1.7243 A -0.2886
-2.0253 ALARM -0.2969
-2.0253 AMAZING -0.2625
-2.0253 CLOCK -0.2625
-2.0253 COOL -0.2625
-2.0253 DO -0.2886
-2.0253 GUEST -0.2625
-2.0253 IMPRESS -0.2969
-2.0253 ME -0.2969
-1.7243 MUSIC -0.2625
-2.0253 MY -0.2969
-2.0253 PICTURE -0.2625
-1.5482 PLAY -0.2714
-1.0711 PLEASE -0.2625
-2.0253 RUN -0.2969
-2.0253 SAY -0.2886
-1.5482 SOMETHING -0.2534
-2.0253 TAKE -0.2928
-2.0253 THE -0.2969
-2.0253 UP -0.2625
-2.0253 WAKE -0.2969

\2-grams:
-0.3010 <s> PLEASE 0.0000
-0.6021 A MUSIC 0.0000
-0.6021 A PICTURE 0.0000
-0.3010 ALARM CLOCK 0.0000
-0.3010 AMAZING </s> -0.3010
-0.3010 CLOCK </s> -0.3010
-0.3010 COOL </s> -0.3010
-0.3010 DO SOMETHING -0.2218
-0.3010 GUEST </s> -0.3010
-0.3010 IMPRESS MY 0.0000
-0.3010 ME UP 0.0000
-0.3010 MUSIC </s> -0.3010
-0.3010 MY GUEST 0.0000
-0.3010 PICTURE </s> -0.3010
-0.7782 PLAY A -0.1761
-0.7782 PLAY MUSIC 0.0000
-0.7782 PLAY SOMETHING -0.2218
-1.2553 PLEASE DO 0.0000
-1.2553 PLEASE IMPRESS 0.0000
-0.7782 PLEASE PLAY 0.0000
-1.2553 PLEASE RUN 0.0000
-1.2553 PLEASE SAY 0.0000
-1.2553 PLEASE TAKE 0.0000
-1.2553 PLEASE WAKE 0.0000
-0.3010 RUN THE 0.0000
-0.3010 SAY SOMETHING -0.2218
-0.7782 SOMETHING </s> -0.3010
-0.7782 SOMETHING AMAZING 0.0000
-0.7782 SOMETHING COOL 0.0000
-0.3010 TAKE A -0.1761
-0.3010 THE ALARM 0.0000
-0.3010 UP </s> -0.3010
-0.3010 WAKE ME 0.0000

\3-grams:
-1.2553 <s> PLEASE DO
-1.2553 <s> PLEASE IMPRESS
-0.7782 <s> PLEASE PLAY
-1.2553 <s> PLEASE RUN
-1.2553 <s> PLEASE SAY
-1.2553 <s> PLEASE TAKE
-1.2553 <s> PLEASE WAKE
-0.3010 A MUSIC </s>
-0.3010 A PICTURE </s>
-0.3010 ALARM CLOCK </s>
-0.3010 DO SOMETHING AMAZING
-0.3010 IMPRESS MY GUEST
-0.3010 ME UP </s>
-0.3010 MY GUEST </s>
-0.3010 PLAY A MUSIC
-0.3010 PLAY MUSIC </s>
-0.3010 PLAY SOMETHING COOL
-0.3010 PLEASE DO SOMETHING
-0.3010 PLEASE IMPRESS MY
-0.7782 PLEASE PLAY A
-0.7782 PLEASE PLAY MUSIC
-0.7782 PLEASE PLAY SOMETHING
-0.3010 PLEASE RUN THE
-0.3010 PLEASE SAY SOMETHING
-0.3010 PLEASE TAKE A
-0.3010 PLEASE WAKE ME
-0.3010 RUN THE ALARM
-0.3010 SAY SOMETHING </s>
-0.3010 SOMETHING AMAZING </s>
-0.3010 SOMETHING COOL </s>
-0.3010 TAKE A PICTURE
-0.3010 THE ALARM CLOCK
-0.3010 WAKE ME UP

\end\
